label,match_elasticity,delta,risk_aversion,common_search_cost_multiplier,leisure_R_post_multiplier,leisure_N_post_multiplier,benefit_multiplier,benefit_weight,target_pre_N,target_pre_R,target_post_N,target_post_R,mu_pre,mu_post,kappa_pre,kappa_post_equal_health,fit_pre_N,fit_pre_R,fit_post_N,fit_post_R,post_R_target_gap_pp,did_full_pp,target_full_did_pp,did_benefit_covid_env_pp,did_benefit_normal_pp,did_covid_only_pp,elasticity_full_logdid,target_full_elasticity_logdid,elasticity_benefit_normal_logdid,elasticity_benefit_covid_env_logdid,elasticity_covid_only_logdid,target_to_structural_elasticity_ratio
equal_health,0.42,0.01,0.0,1.0,1.0,1.0,2.0,0.25,0.1,0.0866,0.0821,0.0312,0.06451874913954228,0.061779149108231846,0.8761869781637306,0.8761869781637306,0.09560887333015351,0.09115928807467455,0.08210000599617313,0.07555767699106115,4.4357676991061155,-0.20927437496330026,-3.75,-0.2609866850127062,-0.30040834857016113,0.05171231004940596,-0.051049119054360693,-1.1882751229801944,-0.04834391042163263,-0.04899135954659829,-0.0020468825411138858,24.254789701232166
equal_health,0.42,0.01,0.0,1.0,1.0,1.0,2.0,0.28883817421806823,0.1,0.0866,0.0821,0.0312,0.0736130758264213,0.0704082897082656,1.630898990538714,1.630898990538714,0.09598151226108598,0.09080693742074736,0.08210000509565868,0.07450870355437099,4.330870355437099,-0.2416726700949094,-3.75,-0.3033036718937694,-0.3505023096945803,0.06163100179886,-0.060019327192488474,-1.1882751229801944,-0.056789230905084684,-0.05756415357466351,-0.002441833313551014,20.64262304211498
equal_health,0.42,0.01,0.0,1.0,1.0,1.0,2.0,0.3337099635425086,0.1,0.0866,0.0821,0.0312,0.061964119423783576,0.05919063637126795,0.7126564929518364,0.7126564929518364,0.096408387875003,0.09038463806813929,0.08210000406054281,0.07328532812451584,4.208532812451584,-0.2790926129163264,-3.75,-0.35281909218337165,-0.4095850181629387,0.07372647926704523,-0.07077681558540125,-1.1882751229801944,-0.0669044784969336,-0.0678358484098579,-0.0029244881472724887,17.516919900533217
equal_health,0.42,0.01,0.0,1.0,1.0,1.0,2.0,0.3855527063519852,0.1,0.0866,0.0821,0.0312,0.07555733119024345,0.07206544337570181,1.8161011753629532,1.8161011753629532,0.09691884868675779,0.08989700714478295,0.0821000049762738,0.0718559149052719,4.065591490527191,-0.32222485290270547,-3.75,-0.4109095686244785,-0.4796301170532828,0.088684715721773,-0.08377121008197519,-1.1882751229801944,-0.07910198607140975,-0.08022814890784062,-0.0035224910039323015,14.8111995497389
equal_health,0.42,0.01,0.0,1.0,1.0,1.0,2.0,0.4454493590701697,0.1,0.0866,0.0821,0.0312,0.09235348234316718,0.08793384631269045,4.675738639630721,4.675738639630721,0.09749785369587494,0.08930163155035854,0.08210000451836505,0.07018308987883058,3.898308987883058,-0.37206924940180736,-3.75,-0.47919527054188,-0.5628328476119135,0.10712602114007269,-0.09957491006537073,-1.1882751229801944,-0.09391914596441629,-0.09528697132329643,-0.004262054145038415,12.470488950147548
equal_health,0.42,0.01,0.0,1.0,1.0,1.0,2.0,0.514651118321746,0.1,0.0866,0.0821,0.0312,0.08292014496938474,0.078794515956445,2.7663404099516735,2.7663404099516735,0.09817281120076064,0.08858941769264203,0.08210000498424126,0.06822063010881883,3.7020630108818833,-0.4295981367303824,-3.75,-0.5597352276249055,-0.662253192876916,0.13013709089452308,-0.11898507576795418,-1.1882751229801944,-0.11209318881695726,-0.11376422572242811,-0.00518792616097932,10.445068433722318
equal_health,0.42,0.01,0.0,1.0,1.0,1.0,2.0,0.5946035575013605,0.1,0.0866,0.0821,0.0312,0.08149094985880595,0.07725351073398738,2.5112250115449317,2.5112250115449317,0.09897762321479256,0.08774791356017148,0.08210000504010809,0.06591155468329844,3.4711554683298442,-0.49587407021885654,-3.75,-0.6551177049644936,-0.7819247706893578,0.15924363474563696,-0.14311333348707486,-1.1882751229801944,-0.1346518135387151,-0.13670779385608348,-0.006363087141427096,8.692080308392134
equal_health,0.42,0.01,0.0,1.0,1.0,1.0,2.0,0.6869768237290446,0.1,0.0866,0.0821,0.0312,0.08071275441976923,0.07631339083743316,2.361850251966848,2.361850251966848,0.09988553351451748,0.08669861932216857,0.08210000482859321,0.06318706062164876,3.1987060621648764,-0.5726030014595498,-3.75,-0.7684671264019256,-0.9264598894300489,0.1958641249423759,-0.17348642371330386,-1.1882751229801944,-0.16304146885144374,-0.1655811493590176,-0.007849994554887439,7.176391319785706
equal_health,0.42,0.01,0.0,1.0,1.0,1.0,2.0,0.7937005259840997,0.1,0.0866,0.0821,0.0312,0.06265242946696946,0.05882151698759654,0.6783086838956544,0.6783086838956544,0.09996426302374127,0.08661056738666265,0.0821000016588085,0.05990057579369494,2.8700575793694942,-0.8845730228034924,-3.75,-0.9080495168931714,-1.1223539614514573,0.02347649408967889,-0.24794301245930295,-1.1882751229801944,-0.20022676643044188,-0.203630656499366,-0.0442325378682767,5.835443166603424
equal_health,0.42,0.01,0.0,1.0,1.0,1.0,2.0,0.9170040432046712,0.1,0.0866,0.0821,0.0312,0.06266314528562178,0.058365082321233,0.6450054629532577,0.6450054629532577,0.10000497612672957,0.08655270367072619,0.08210000034956197,0.05611738660060607,2.4917386600606073,-1.2530341292952534,-3.75,-1.0809812937849228,-1.374955844294853,-0.17205283551033043,-0.3405134069828013,-1.1882751229801944,-0.24957810734956937,-0.2541448244136111,-0.08639206262407045,4.675582616021806
equal_health,0.42,0.01,0.0,1.0,1.0,1.0,2.0,1.0211971582756874,0.1,0.0866,0.0821,0.0312,0.06265657570345098,0.058091643712543294,0.6150598336668497,0.6150598336668497,0.09998001487038893,0.08658481714039543,0.082099999834475,0.05333203225904595,2.2132032259045955,-1.5372769845435537,-3.75,-1.2485377581229333,-1.6156165377829717,-0.28873922642062,-0.414854240421116,-1.1882751229801944,-0.2979516019884698,-0.30346694806906716,-0.11181201082084094,3.9156657110142703
equal_health,0.42,0.01,0.0,1.0,1.0,1.0,2.0,1.0432485232709878,0.1,0.0866,0.0821,0.0312,0.06265370058481128,0.058045029352747635,0.6087691574021,0.6087691574021,0.09996909193762411,0.08658255685042326,0.08209999982586755,0.05276378913160365,2.1563789131603652,-1.594967560706305,-3.75,-1.286605576845127,-1.6697756101211714,-0.30836198386117797,-0.4304283344308015,-1.1882751229801944,-0.30909768722949227,-0.31480385092914476,-0.11613568460168638,3.774652436661737
equal_health,0.42,0.01,0.0,1.0,1.0,1.0,2.0,1.0594630943592953,0.1,0.0866,0.0821,0.0312,0.06266141330308057,0.05801615875343628,0.6044968397294165,0.6044968397294165,0.09999839507428344,0.0865893609663734,0.08210000015385878,0.052333852241658346,2.113385224165835,-1.6357113804290409,-3.75,-1.3149408718613702,-1.7106322379064156,-0.3207705085676704,-0.4419226012651368,-1.1882751229801944,-0.31752892881833106,-0.3233817092994197,-0.11910939870804661,3.6745279303350102
equal_health,0.42,0.01,0.0,1.0,1.0,1.0,2.0,1.065776057529212,0.1,0.0866,0.0821,0.0312,0.06266528843383781,0.05800565658147212,0.6028417555027107,0.6028417555027107,0.1000131198422273,0.08659461928503355,0.08209999990220972,0.052166743971303484,2.0966743971303483,-1.6514755373712486,-3.75,-1.326128591839761,-1.7268011317634737,-0.32534694553148796,-0.4464118525223672,-1.1882751229801944,-0.32086820959577345,-0.32677844099092557,-0.12022402404268555,3.6363326765892494
equal_health,0.42,0.01,0.0,1.0,1.0,1.0,2.0,1.0887900432785576,0.1,0.0866,0.0821,0.0312,0.06265970131259198,0.05796304821975834,0.5963226129403957,0.5963226129403957,0.09999189023294414,0.08657810112839291,0.08210000007799248,0.05157872775341485,2.037872775341485,-1.7107483220026432,-3.75,-1.3678438018589307,-1.7857609433859654,-0.34290452014371203,-0.46279710357827203,-1.1882751229801944,-0.3332618000474813,-0.3393601422376424,-0.12411021795313096,3.501516457251146
equal_health,0.42,0.01,0.0,1.0,1.0,1.0,2.0,1.1123009847779686,0.1,0.0866,0.0821,0.0312,0.06266480833401492,0.0579257370847997,0.5898421923003365,0.5898421923003365,0.10001129548496429,0.08658797208365043,0.08209999996682632,0.05097182068037433,1.9771820680374328,-1.7704855885138118,-3.75,-1.4116326657074827,-1.8482614442588898,-0.35885292280632897,-0.47975792445516513,-1.1882751229801944,-0.346398339289189,-0.3526949637883178,-0.12781501353393004,3.3691298288380986
equal_health,0.42,0.01,0.0,1.0,1.0,1.0,2.0,1.1363196131115871,0.1,0.0866,0.0821,0.0312,0.06265987473775292,0.05788573547893912,0.5826036143485664,0.5826036143485664,0.09999254916419284,0.08661270424181607,0.08210000229125462,0.050375067876914696,1.9175067876914698,-1.8345089491963136,-3.75,-1.458371227264453,-1.9142481369219164,-0.37613772193186046,-0.4974304398038495,-1.1882751229801944,-0.360327725694359,-0.3668146630667531,-0.13144772155322768,3.2394428102890522
equal_health,0.42,0.01,0.0,1.0,1.0,1.0,2.0,1.1608568910867354,0.1,0.0866,0.0821,0.0312,0.06265319991931792,0.057851869157349974,0.576095193156099,0.576095193156099,0.09996718991800005,0.08655344918569839,0.08209999912399071,0.04973482451954153,1.8534824519541533,-1.8951433872147518,-3.75,-1.5060852095817026,-1.9810663060690654,-0.3890581776330495,-0.5152624651104649,-1.1882751229801944,-0.37497940070259506,-0.3816411685192079,-0.13451671230303322,3.1135926126386675
equal_health,0.42,0.01,0.0,1.0,1.0,1.0,2.0,1.1859240182376638,0.1,0.0866,0.0821,0.0312,0.06266604565439111,0.05782247546198046,0.5692919029470126,0.5692919029470126,0.10001599728475916,0.08658293793756676,0.08210000066260364,0.04907644095151072,1.7876440951510726,-1.9590500363900536,-3.75,-1.5569584424422678,-2.0539642491089563,-0.40209159394778593,-0.5342754923658507,-1.1882751229801944,-0.39067064495728443,-0.39753104389532584,-0.1377039408167258,2.9891379333209507
equal_health,0.42,0.01,0.0,1.0,1.0,1.0,2.0,1.2115324359373458,0.1,0.0866,0.0821,0.0312,0.06266221551583301,0.05779050120646935,0.5615278790762064,0.5615278790762064,0.1000014432286285,0.08662077431692891,0.08210000472065396,0.04843841164419512,1.7238411644195124,-2.028092416475924,-3.75,-1.611829809331903,-2.1309460691399433,-0.41626260714402125,-0.5539948997339037,-1.1882751229801944,-0.4073801430585028,-0.4144154925946372,-0.14059908871924767,2.8673520759092668
equal_health,0.42,0.01,0.0,1.0,1.0,1.0,2.0,1.224053543304655,0.1,0.0866,0.0821,0.0312,0.06265797944082845,0.057777019007250394,0.5580960011821235,0.5580960011821235,0.099985348094485,0.08659694420297867,0.08209999585238575,0.048112208408092015,1.6912208408092018,-2.0599383552787414,-3.75,-1.6385678153388694,-2.1680846777031064,-0.42137053993987195,-0.5635785462867733,-1.1882751229801944,-0.41573984492087956,-0.42284886533733473,-0.14177168868440485,2.810165097716954
equal_health,0.42,0.01,0.0,1.0,1.0,1.0,2.0,1.2376938326196576,0.1,0.0866,0.0821,0.0312,0.06266790774877641,0.05776435193582494,0.5545576387096623,0.5545576387096623,0.10002307345853388,0.0866091660905976,0.08210000021721875,0.04773696243999269,1.653696243999269,-2.0949130409289776,-3.75,-1.6679257038161661,-2.2104201382641913,-0.42698733711281167,-0.5745342382472887,-1.1882751229801944,-0.4251095137913807,-0.4323172239836234,-0.1432838870086403,2.7486185075642684
equal_health,0.42,0.01,0.0,1.0,1.0,1.0,2.0,1.2644201491143223,0.1,0.0866,0.0821,0.0312,0.06265656836636518,0.05773954684926307,0.5465801887818094,0.5465801887818094,0.09997998699500785,0.08660990424264467,0.08209999573519838,0.047065993204781,1.5865993204781,-2.1663919778054197,-3.75,-1.7290796483370947,-2.2946377504787394,-0.43731232946832516,-0.5955897813614197,-1.1882751229801944,-0.44406493375539907,-0.45140732228674624,-0.14528849032598812,2.63237892766252
equal_health,0.42,0.01,0.0,1.0,1.0,1.0,2.0,1.2917235840970556,0.1,0.0866,0.0821,0.0312,0.06267154155972766,0.057721924449429814,0.5398156460935212,0.5398156460935212,0.10003688319613348,0.08658363527190215,0.08209999792164152,0.046296129135007504,1.5096129135007506,-2.2350620862402657,-3.75,-1.790884676463938,-2.382584833562118,-0.44417740977632825,-0.6181248776238937,-1.1882751229801944,-0.4642998957162015,-0.4717935374874539,-0.1474695722494917,2.5186337424382237
equal_health,0.42,0.01,0.0,1.0,1.0,1.0,2.0,1.3196165996573985,0.1,0.0866,0.0821,0.0312,0.06265881618101041,0.057703731975746575,0.5316740210637333,0.5316740210637333,0.09998852720273663,0.0865638605449712,0.08210000006288075,0.045571462081599005,1.4371462081599007,-2.3103871323516345,-3.75,-1.8591014485357837,-2.475775901129576,-0.4512856838158507,-0.6412538389242761,-1.1882751229801944,-0.48601557257223277,-0.49359917086269317,-0.14881264421790866,2.407368555549585
equal_health,0.42,0.01,0.0,1.0,1.0,1.0,2.0,1.3481119269867825,0.1,0.0866,0.0821,0.0312,0.06265175987699899,0.05769064118915591,0.5231886937784069,0.5231886937784069,0.09996171933892872,0.08658434010497677,0.08210000114776937,0.0448269932762321,1.3626993276232104,-2.389562863758532,-3.75,-1.9324010343816367,-2.5759773694098382,-0.4571618293768958,-0.6657449093808997,-1.1882751229801944,-0.5094519876132714,-0.5171041005813419,-0.14981105500411437,2.2979417909165765
equal_health,0.42,0.01,0.0,1.0,1.0,1.0,2.0,1.3772225721894182,0.1,0.0866,0.0821,0.0312,0.06266082204368027,0.057681618482705005,0.5152549945581087,0.5152549945581087,0.09999614851034958,0.08659704634755036,0.08210000018005725,0.044004447943883765,1.2804447943883766,-2.4696450073374265,-3.75,-2.0084057378087543,-2.681914916125593,-0.4612392695286723,-0.6921781570500293,-1.1882751229801944,-0.5347056702766959,-0.5424162656903819,-0.15094336794146054,2.1907070236320623
equal_health,0.42,0.01,0.0,1.0,1.0,1.0,2.0,1.4069618222186635,0.1,0.0866,0.0821,0.0312,0.0626534651181631,0.057680264022565625,0.5065509160400571,0.5065509160400571,0.09996819740125094,0.08660512561281766,0.08210000008138478,0.043199813725497326,1.1999813725497326,-2.5537114567454178,-3.75,-2.0917610910722533,-2.794222165451804,-0.4619503656731637,-0.7193403359560133,-1.1882751229801944,-0.5620039217045568,-0.5696913872384058,-0.15082808164222486,2.0858225165389803
equal_health,0.42,0.01,0.0,1.0,1.0,1.0,2.0,1.414213562373095,0.1,0.0866,0.0821,0.0312,0.06266142957735206,0.05768026420311811,0.5048904649559731,0.5048904649559731,0.09999845691082443,0.08659834037298886,0.08210000069327018,0.0429700699040158,1.17700699040158,-2.57298142514188,-3.75,-2.1111468072431037,-2.821916549055348,-0.4618346178987772,-0.7264836539098936,-1.1882751229801944,-0.5688855561983385,-0.5765766491825971,-0.15108942690241464,2.0609144068959293
equal_health,0.42,0.01,0.0,1.0,1.0,1.0,2.0,1.437343250941579,0.1,0.0866,0.0821,0.0312,0.06266370813860823,0.05768026492031329,0.49855472250552313,0.49855472250552313,0.10000711486577683,0.0865915855705614,0.08210000312381706,0.04229218177601247,1.1092181776012469,-2.639229205258915,-3.75,-2.1775331519699366,-2.912724352828165,-0.4616960532889782,-0.7491873912393545,-1.1882751229801944,-0.5915598317248347,-0.5992020068226525,-0.15116869653372578,1.9830960334748873
equal_health,0.42,0.01,0.0,1.0,1.0,1.0,2.0,1.4683807253344403,0.1,0.0866,0.0821,0.0312,0.0626679597026341,0.05768026451584742,0.48968769809397694,0.48968769809397694,0.10002327089335851,0.08662490484376482,0.08210000175309777,0.04136527911622625,1.016527911622625,-2.733635658727785,-3.75,-2.271196942551288,-3.041153067102691,-0.4624387161764959,-0.7814800145156604,-1.1882751229801944,-0.6238684480883212,-0.631391883264913,-0.15127359559449727,1.8819930291717577
equal_health,0.42,0.01,0.0,1.0,1.0,1.0,2.0,1.5000884118120328,0.1,0.0866,0.0821,0.0312,0.06266809834649396,0.057680264627264964,0.48120930137908613,0.48120930137908613,0.10002379776825991,0.08658105922392474,0.08210000213068751,0.04035581303008921,0.9155813030089215,-2.8301450556263132,-3.75,-2.368662384086074,-3.1745418040676086,-0.4614826715402383,-0.8163858259673101,-1.1882751229801944,-0.6589375527989152,-0.6662517040549929,-0.15131917649052806,1.7835228274059518
equal_health,0.42,0.01,0.0,1.0,1.0,1.0,2.0,1.5324807826936186,0.1,0.0866,0.0821,0.0312,0.06266245169101352,0.05768026404611574,0.4717001912489788,0.4717001912489788,0.10000234062977004,0.0866043308479412,0.08210000016119517,0.03932074682173164,0.8120746821731639,-2.9381243557634713,-3.75,-2.4761552210374256,-3.3206054263357028,-0.4619691347260455,-0.8545688110721172,-1.1882751229801944,-0.6976459919671752,-0.7046351840044772,-0.15111654479188974,1.6863692730004867
equal_health,0.42,0.01,0.0,1.0,1.0,1.0,2.0,1.5655726228085298,0.1,0.0866,0.0821,0.0312,0.06264969679382092,0.05768026392257694,0.46208808352069486,0.46208808352069486,0.09995388219151877,0.08659126839465407,0.08209999974252696,0.03821354683533258,0.7013546835332584,-3.0523839110329702,-3.75,-2.5907507930711287,-3.4752823913190163,-0.4616331179618423,-0.8962570012652754,-1.1882751229801944,-0.7401991273624663,-0.7467139881030856,-0.1507204098824483,1.5913390426752663
equal_health,0.42,0.01,0.0,1.0,1.0,1.0,2.0,1.5993790362443971,0.1,0.0866,0.0821,0.0312,0.06265929048414998,0.0576802642682485,0.4524219518855237,0.4524219518855237,0.0999903292947621,0.08665053582468987,0.08210000091399455,0.03699793015704987,0.5797930157049873,-3.176227728687246,-3.75,-2.7132646087637022,-3.645580791369227,-0.4629631199235441,-0.9433577777085576,-1.1882751229801944,-0.7876728287258715,-0.7935678088876643,-0.1509720431895791,1.4973832225450112
equal_health,0.42,0.01,0.0,1.0,1.0,1.0,2.0,1.6339154532410998,0.1,0.0866,0.0821,0.0312,0.06266348874875616,0.05768026412649429,0.44298023673669684,0.44298023673669684,0.10000628122105916,0.08663978386138584,0.082100000433595,0.03567983201817086,0.4479832018170864,-3.3053671055750806,-3.75,-2.8426211991363233,-3.8249872383828905,-0.4627459064387574,-0.9952843395848883,-1.1882751229801944,-0.8403233438746994,-0.8453515595904846,-0.15111651358240905,1.4056579295315113
equal_health,0.42,0.01,0.0,1.0,1.0,1.0,2.0,1.6339154532410998,0.1,0.0866,0.0821,0.0312,0.06266348874875616,0.05768026412649429,0.44298023673669684,0.44298023673669684,0.10000628122105916,0.08663978386138584,0.082100000433595,0.03567983201817086,0.4479832018170864,-3.3053671055750806,-3.75,-2.8426211991363233,-3.8249872383828905,-0.4627459064387574,-0.9952843395848883,-1.1882751229801944,-0.8403233438746994,-0.8453515595904846,-0.15111651358240905,1.4056579295315113
equal_health,0.42,0.01,0.0,1.0,1.0,1.0,2.0,1.6691976372335804,0.1,0.0866,0.0821,0.0312,0.06267424936610862,0.05768026413500678,0.4334168186659782,0.4334168186659782,0.10004717451531431,0.08664311266738335,0.08210000046244349,0.034252677298413775,0.3052677298413776,-3.4443261316098774,-3.75,-2.981466730634286,-4.01969058909769,-0.46285940097559086,-1.053642026129659,-1.1882751229801944,-0.8995242952235506,-0.9033724383273397,-0.1514579071467844,1.315376773261284
equal_health,0.42,0.01,0.0,1.0,1.0,1.0,2.0,1.7052416920467393,0.1,0.0866,0.0821,0.0312,0.06267164664299896,0.057680264057919525,0.4234443812226241,0.4234443812226241,0.1000372825653362,0.08661611026298982,0.08210000020119777,0.032733067788995325,0.15330677889953265,-3.594576010985607,-3.75,-3.132315584909155,-4.22867256132765,-0.46226042607645185,-1.1188029226832794,-1.1882751229801944,-0.966372049498766,-0.9685899280513397,-0.15139992412540024,1.226809291080312
equal_health,0.42,0.01,0.0,1.0,1.0,1.0,2.0,1.7420640692456921,0.1,0.0866,0.0821,0.0312,0.06266062501588256,0.0576802639794532,0.41306568715657105,0.41306568715657105,0.09999539988512816,0.08657876667497819,0.08209999993527844,0.031101311858428692,-0.009868814157130631,-3.7582054866699757,-3.75,-3.2968004579862806,-4.455103931176101,-0.46140502868369465,-1.1925583077125546,-1.1882751229801944,-1.0426718040345881,-1.0426581635794705,-0.15108201819111158,1.1396593480847237
equal_health,0.42,0.01,0.0,1.0,1.0,1.0,2.0,1.7796815756447497,0.1,0.0866,0.0821,0.0312,0.0626602615272126,0.05768026390316396,0.4020905559347088,0.4020905559347088,0.09999401878505772,0.08663115498138932,0.08209999967673713,0.02932654978619683,-0.18734502138031683,-3.9410586086871904,-3.75,-3.478513637475003,-4.7088692687796305,-0.4625449712121874,-1.278219015678935,-1.1882751229801944,-1.1314832417555143,-1.1283800019269412,-0.15102129221442415,1.0530806297089368
equal_health,0.42,0.01,0.0,1.0,1.0,1.0,2.0,1.8181113809785392,0.1,0.0866,0.0821,0.0312,0.06267069771860329,0.05768026384731397,0.3920006707784236,0.3920006707784236,0.10003367620961999,0.08658245993150238,0.08209999948746366,0.027350803749451362,-0.38491962505486366,-4.12979794598947,-3.75,-3.6682754211178663,-4.978922476014124,-0.46152252487160356,-1.3774599153882225,-1.1882751229801944,-1.2346342543652595,-1.2272449444327516,-0.1514011394473231,0.968246093308969
equal_health,0.42,0.01,0.0,1.0,1.0,1.0,2.0,1.8573710257387768,0.1,0.0866,0.0821,0.0312,0.06265812021633438,0.05768026379564928,0.3804723727302242,0.3804723727302242,0.09998588295243717,0.08660159254692994,0.08209999931237404,0.025240100023962618,-0.595989997603738,-4.347560888290415,-3.75,-3.885668419072886,-5.281020146045843,-0.46189246921753163,-1.4943337231873661,-1.1882751229801944,-1.3577378124269672,-1.3445343499457951,-0.15098043307090497,0.8837819004238157
equal_health,0.42,0.01,0.0,1.0,1.0,1.0,2.0,1.8877486253633868,0.1,0.0866,0.0821,0.0312,0.06267044395420371,0.05768026501925253,0.37197401379776773,0.37197401379776773,0.10003271179920888,0.08664711255008715,0.08210000345911832,0.023510020482954842,-0.7689979517045156,-4.520438372704173,-3.75,-4.057505792983226,-5.503235415606149,-0.4629325797209459,-1.5968582110957061,-1.1882751229801944,-1.4545534792532377,-1.4467126825066805,-0.15133228035968757,0.82136220781676
equal_health,0.42,0.01,0.0,1.0,1.0,1.0,2.0,1.897478429180262,0.1,0.0866,0.0821,0.0312,0.0626646467804512,0.05768026327530366,0.36928087879136007,0.36928087879136007,0.10001068159318696,0.08661953121109991,0.08209999754894276,0.022996823042540505,-0.8203176957459493,-4.571202412431523,-3.75,-4.108893405081044,-5.5658675282651515,-0.4623090073504794,-1.6285577839731757,-1.1882751229801944,-1.4842470084301487,-1.4785691869568671,-0.15117260443167238,0.8036655527942224
equal_health,0.42,0.01,0.0,1.0,1.0,1.0,2.0,1.938451897499753,0.1,0.0866,0.0821,0.0312,0.0626582780918267,0.05768026425953704,0.3578017735135509,0.3578017735135509,0.09998648278150442,0.08659299249135681,0.08210000088447174,0.021000194970393498,-1.0199805029606501,-4.7706315623930635,-3.75,-4.308925796794187,-5.81605257753689,-0.46170576559887605,-1.7594967258982623,-1.1882751229801944,-1.6067110117044052,-1.6096842329483354,-0.15099352769774863,0.7382038654896445
equal_health,0.42,0.01,0.0,1.0,1.0,1.0,2.0,1.980310132191452,0.1,0.0866,0.0821,0.0312,0.06266483915133958,0.05768026516914054,0.3465133997105943,0.3465133997105943,0.100011412588802,0.08655170647510696,0.082100003967083,0.019203182627135083,-1.1996817372864916,-4.943711522625289,-3.75,-4.482880829964745,-6.038812127420989,-0.46083069266054505,-1.8875063868795061,-1.1882751229801944,-1.7260020172595913,-1.7374474330308165,-0.15124231796620227,0.6839200429260518
equal_health,0.42,0.01,0.0,1.0,1.0,1.0,2.0,2.0230722385829156,0.1,0.0866,0.0821,0.0312,0.06266275105894514,0.057680263668039716,0.33408064318678926,0.33408064318678926,0.10000347815280854,0.08660890411280245,0.08209999887991012,0.01761491110825384,-1.3585088891746158,-5.109051373165021,-3.75,-4.646981376530428,-6.247328241768968,-0.462069996634593,-2.013122088299209,-1.1882751229801944,-1.8433513647942412,-1.863183325028491,-0.1511218563498175,0.637766078634277
equal_health,0.42,0.01,0.0,1.0,1.0,1.0,2.0,2.0667577345552886,0.1,0.0866,0.0821,0.0312,0.06265688374191795,0.05768026370705545,0.32203813579517504,0.32203813579517504,0.09998118518783185,0.08655252191362421,0.08209999901213295,0.016172517040914842,-1.5027482959085157,-5.24988186970105,-3.75,-4.789062847074089,-6.4297007147110214,-0.4608190226269608,-2.1357571992990074,-1.1882751229801944,-1.959412986073603,-1.985950403516014,-0.1509868117663938,0.5983407847831547
equal_health,0.42,0.01,0.0,1.0,1.0,1.0,2.0,2.1113865594518377,0.1,0.0866,0.0821,0.0312,0.06266675618571334,0.0576802636961961,0.3092646515041737,0.3092646515041737,0.10001869735160551,0.0866325364030195,0.08209999897533106,0.01483777400742506,-1.636222599257494,-5.387606401931998,-3.75,-4.925005732584574,-6.607647519003628,-0.46260066934742294,-2.260818673092804,-1.1882751229801944,-2.0753451033257604,-2.1107757791642294,-0.15122793135326007,0.5629565843562488
equal_health,0.42,0.01,0.0,1.0,1.0,1.0,2.0,2.156979083178852,0.1,0.0866,0.0821,0.0312,0.06266446618965016,0.05768026368657486,0.29640412438689967,0.29640412438689967,0.10000999536388124,0.08663675823840107,0.08209999894272507,0.01363239994266471,-1.7567600057335289,-5.509436187458017,-3.75,-5.046752342844055,-6.7669904531223315,-0.46268384461396167,-2.3832496079388297,-1.1882751229801944,-2.191498882470243,-2.233283065572239,-0.1511506569540124,0.5320754638309677
equal_health,0.42,0.01,0.0,1.0,1.0,1.0,2.0,2.181015465330515,0.1,0.0866,0.0821,0.0312,0.06265508242988307,0.05768026368178503,0.28950504518501263,0.28950504518501263,0.09997434165226703,0.08662862354483174,0.08209999892649249,0.013051445845335161,-1.8148554154664838,-5.570283497372201,-3.75,-5.107814976855171,-6.843749548701933,-0.4624685205170299,-2.4464584836459213,-1.1882751229801944,-2.2516087849305317,-2.296780671823083,-0.15085787688411376,0.5173655184223551
equal_health,0.42,0.01,0.0,1.0,1.0,1.0,2.0,2.203556115503069,0.1,0.0866,0.0821,0.0312,0.06264906041217568,0.05768026367824908,0.28297708014508516,0.28297708014508516,0.09995146480552286,0.08664369492306533,0.08209999891450927,0.01253742207708935,-1.866257792291065,-5.625480695496239,-3.75,-5.162710415533686,-6.915159346974775,-0.46277027996255315,-2.5050085267084627,-1.1882751229801944,-2.308391146917582,-2.355535180401662,-0.15065103046904624,0.5044607836328607
equal_health,0.42,0.01,0.0,1.0,1.0,1.0,2.0,2.2511389155498613,0.1,0.0866,0.0821,0.0312,0.06266233095225629,0.05768026367225282,0.2699466233691148,0.2699466233691148,0.10000188185490574,0.08664000639542159,0.08209999889418818,0.011497637363045987,-1.9702362636954012,-5.724048607165803,-3.75,-5.26130243276416,-7.051587841602154,-0.46274617440164234,-2.629122874156876,-1.1882751229801944,-2.425812210226145,-2.4792268651582092,-0.1510792559680543,0.47929261322535965
equal_health,0.42,0.01,0.0,1.0,1.0,1.0,2.0,2.2997492015065264,0.1,0.0866,0.0821,0.0312,0.06265637509738854,0.05768026366845002,0.256374004117187,0.256374004117187,0.09997925272058213,0.08660633762644776,0.08209999888130066,0.010544065949306729,-2.065593405069327,-5.818301783785957,-3.75,-5.356313025560687,-7.175524257920461,-0.46198875822526786,-2.7537947609469056,-1.1882751229801944,-2.54390328924739,-2.6040550133055578,-0.15092012144534356,0.45631721177495843
equal_health,0.42,0.01,0.0,1.0,1.0,1.0,2.0,2.3494091605351044,0.1,0.0866,0.0821,0.0312,0.06266978014090026,0.057680263668302215,0.24249112480713675,0.24249112480713675,0.10003018905768166,0.08665061838268387,0.08209999888079976,0.009642628961467463,-2.155737103853254,-5.90777992443345,-3.75,-5.444773249217049,-7.298689729376127,-0.4630066752163989,-2.8827302415229457,-1.1882751229801944,-2.6648596139044884,-2.7326089654787378,-0.15130778511964535,0.4348500418434422
equal_health,0.42,0.01,0.0,1.0,1.0,1.0,2.0,2.4001414588992525,0.1,0.0866,0.0821,0.0312,0.06265268620097439,0.057680263668302215,0.22814822012774075,0.22814822012774075,0.09996523833263911,0.08661053868614987,0.08209999888079976,0.00880268690752387,-2.2397313092476128,-5.994261232678664,-3.75,-5.532196323936788,-7.408200656884854,-0.46206490874187645,-3.014482420566814,-1.1882751229801944,-2.789325187544768,-2.864863189362128,-0.15079809317491166,0.41477552135561774
equal_health,0.42,0.01,0.0,1.0,1.0,1.0,2.0,2.4519692523097896,0.1,0.0866,0.0821,0.0312,0.06265980902306105,0.057680263668302215,0.21370630052271633,0.21370630052271633,0.09999229948003437,0.08661869093381837,0.08209999888079976,0.008036589106973238,-2.316341089302676,-6.068980122761051,-3.75,-5.60670847038802,-7.5198175190313385,-0.4622716523730314,-3.145588348807987,-1.1882751229801944,-2.92305056575753,-2.995751813632754,-0.15101848999383502,0.39665339350633666
equal_health,0.42,0.01,0.0,1.0,1.0,1.0,2.0,2.5049161964936477,0.1,0.0866,0.0821,0.0312,0.062661872362217,0.057680263668302215,0.19884853649847156,0.19884853649847156,0.10000013934699171,0.08663057197840865,0.08209999888079976,0.007325423523534944,-2.3874576476465057,-6.140500798868173,-3.75,-5.677962045909933,-7.6152752117247005,-0.4625387529582419,-3.2793442625174287,-1.1882751229801944,-3.047537678767153,-3.129453799712243,-0.15107341556143816,0.37970687507495965
equal_health,0.42,0.01,0.0,1.0,1.0,1.0,2.0,2.5198420997897464,0.1,0.0866,0.0821,0.0312,0.06266146851075409,0.057680263668302215,0.19477615173222715,0.19477615173222715,0.09999860484422818,0.08659949540994298,0.08209999888079976,0.0071239039199951,-2.40760960800049,-6.157698552651945,-3.75,-5.695838572719616,-7.641593635799268,-0.46185997993232786,-3.3190928901715226,-1.1882751229801944,-3.088116761795194,-3.169185731795232,-0.15108960954255038,0.37494650788645273
equal_health,0.42,0.01,0.0,1.0,1.0,1.0,2.0,2.559006457991035,0.1,0.0866,0.0821,0.0312,0.06265665557996203,0.057680263668302215,0.18365473350826042,0.18365473350826042,0.09998031834105618,0.08661895645850395,0.08209999888079976,0.006619746264162848,-2.458025373583715,-6.211889073408467,-3.75,-5.749624442898593,-7.709073163050528,-0.46226463050987493,-3.425573048866441,-1.1882751229801944,-3.1844034310986986,-3.2758363890838207,-0.1509172861094403,0.362739460047493
equal_health,0.42,0.01,0.0,1.0,1.0,1.0,2.0,2.61426472518576,0.1,0.0866,0.0821,0.0312,0.06266057070762493,0.057680263668302215,0.16842658545992806,0.16842658545992806,0.09999519353648467,0.08655506909617733,0.08209999888079976,0.005986447814578633,-2.5213552185421366,-6.267342662591377,-3.75,-5.806454172194881,-7.7951004837022495,-0.4608884903964958,-3.5693696568128983,-1.1882751229801944,-3.330528108845513,-3.4194487508326743,-0.1511025047482576,0.3475048785833787
equal_health,0.42,0.01,0.0,1.0,1.0,1.0,2.0,2.9113063656843745,0.1,0.0866,0.0821,0.0312,0.0626578197752031,0.057680263668302215,0.0849273659927326,0.0849273659927326,0.09998474146802608,0.08661652763906591,0.08209999888079976,0.003295597499707279,-2.7904402500292718,-6.543618755213232,-3.75,-6.081402248225286,-8.177709634260854,-0.46221650698794225,-4.431704637722277,-1.1882751229801944,-4.161732912584638,-4.281928898862648,-0.15095683079120206,0.27750930738149815
equal_health,0.42,0.01,0.0,1.0,1.0,1.0,2.0,3.363585661014858,0.1,0.0866,0.0821,0.0312,0.08252144342636411,0.07799145238827722,2.618371588111468,2.618371588111468,0.10002696441026493,0.0,0.08210000483391237,0.0,-3.1199999999999997,1.7926959576352548,-3.75,0.0,-1.1046719095020308e-14,1.7926959576352548,NaN,-1.1882751229801944,NaN,NaN,NaN,NaN
equal_health,0.42,0.01,0.0,1.0,1.0,1.0,2.0,3.886127764614423,0.1,0.0866,0.0821,0.0312,0.08252144342636411,0.07799145238827722,2.618371588111468,2.618371588111468,0.10002696441026493,0.0,0.08210000483391237,0.0,-3.1199999999999997,1.7926959576352548,-3.75,0.0,-1.1046719095020308e-14,1.7926959576352548,NaN,-1.1882751229801944,NaN,NaN,NaN,NaN
equal_health,0.42,0.01,0.0,1.0,1.0,1.0,2.0,4.489848193237491,0.1,0.0866,0.0821,0.0312,0.08252144342636411,0.07799145238827722,2.618371588111468,2.618371588111468,0.10002696441026493,0.0,0.08210000483391237,0.0,-3.1199999999999997,1.7926959576352548,-3.75,0.0,-1.1046719095020308e-14,1.7926959576352548,NaN,-1.1882751229801944,NaN,NaN,NaN,NaN
equal_health,0.42,0.01,0.0,1.0,1.0,1.0,2.0,5.187358218604038,0.1,0.0866,0.0821,0.0312,0.08252144342636411,0.07799145238827722,2.618371588111468,2.618371588111468,0.10002696441026493,0.0,0.08210000483391237,0.0,-3.1199999999999997,1.7926959576352548,-3.75,0.0,-1.1046719095020308e-14,1.7926959576352548,NaN,-1.1882751229801944,NaN,NaN,NaN,NaN
equal_health,0.42,0.01,0.0,1.0,1.0,1.0,2.0,5.993228307506725,0.1,0.0866,0.0821,0.0312,0.08252144342636411,0.07799145238827722,2.618371588111468,2.618371588111468,0.10002696441026493,0.0,0.08210000483391237,0.0,-3.1199999999999997,1.7926959576352548,-3.75,0.0,-1.1046719095020308e-14,1.7926959576352548,NaN,-1.1882751229801944,NaN,NaN,NaN,NaN
equal_health,0.42,0.01,0.0,1.0,1.0,1.0,2.0,6.924292488049144,0.1,0.0866,0.0821,0.0312,0.08252144342636411,0.07799145238827722,2.618371588111468,2.618371588111468,0.10002696441026493,0.0,0.08210000483391237,0.0,-3.1199999999999997,1.7926959576352548,-3.75,0.0,-1.1046719095020308e-14,1.7926959576352548,NaN,-1.1882751229801944,NaN,NaN,NaN,NaN
equal_health,0.42,0.01,0.0,1.0,1.0,1.0,2.0,7.999999999999998,0.1,0.0866,0.0821,0.0312,0.08252144342636411,0.07799145238827722,2.618371588111468,2.618371588111468,0.10002696441026493,0.0,0.08210000483391237,0.0,-3.1199999999999997,1.7926959576352548,-3.75,0.0,-1.1046719095020308e-14,1.7926959576352548,NaN,-1.1882751229801944,NaN,NaN,NaN,NaN
